digraph Tree {
node [shape=box, style="filled", color="black"] ;
0 [label="Customer service calls <= 3.5\ngini = 0.255\nsamples = 2333\nvalue = [1983, 350]", fillcolor="#e58139d2"] ;
1 [label="Total day charge <= 44.96\ngini = 0.207\nsamples = 2146\nvalue = [1895, 251]", fillcolor="#e58139dd"] ;
0 -> 1 [labeldistance=2.5, labelangle=45, headlabel="True"] ;
2 [label="International plan <= 0.5\ngini = 0.149\nsamples = 2004\nvalue = [1842, 162]", fillcolor="#e58139e9"] ;
1 -> 2 ;
3 [label="Total day charge <= 38.185\ngini = 0.096\nsamples = 1828\nvalue = [1736, 92]", fillcolor="#e58139f1"] ;
2 -> 3 ;
4 [label="Account length <= 224.5\ngini = 0.056\nsamples = 1570\nvalue = [1525, 45]", fillcolor="#e58139f7"] ;
3 -> 4 ;
5 [label="Total day calls <= 121.5\ngini = 0.055\nsamples = 1568\nvalue = [1524, 44]", fillcolor="#e58139f8"] ;
4 -> 5 ;
6 [label="Total eve charge <= 20.915\ngini = 0.044\nsamples = 1341\nvalue = [1311, 30]", fillcolor="#e58139f9"] ;
5 -> 6 ;
7 [label="Number vmail messages <= 43.5\ngini = 0.031\nsamples = 1068\nvalue = [1051, 17]", fillcolor="#e58139fb"] ;
6 -> 7 ;
8 [label="gini = 0.028\nsamples = 1056\nvalue = [1041, 15]", fillcolor="#e58139fb"] ;
7 -> 8 ;
9 [label="gini = 0.278\nsamples = 12\nvalue = [10, 2]", fillcolor="#e58139cc"] ;
7 -> 9 ;
10 [label="Total day minutes <= 221.75\ngini = 0.091\nsamples = 273\nvalue = [260, 13]", fillcolor="#e58139f2"] ;
6 -> 10 ;
11 [label="gini = 0.078\nsamples = 270\nvalue = [259, 11]", fillcolor="#e58139f4"] ;
10 -> 11 ;
12 [label="gini = 0.444\nsamples = 3\nvalue = [1, 2]", fillcolor="#399de57f"] ;
10 -> 12 ;
13 [label="Total eve charge <= 27.03\ngini = 0.116\nsamples = 227\nvalue = [213, 14]", fillcolor="#e58139ee"] ;
5 -> 13 ;
14 [label="Total night calls <= 146.5\ngini = 0.108\nsamples = 226\nvalue = [213, 13]", fillcolor="#e58139ef"] ;
13 -> 14 ;
15 [label="gini = 0.101\nsamples = 225\nvalue = [213, 12]", fillcolor="#e58139f1"] ;
14 -> 15 ;
16 [label="gini = 0.0\nsamples = 1\nvalue = [0, 1]", fillcolor="#399de5ff"] ;
14 -> 16 ;
17 [label="gini = 0.0\nsamples = 1\nvalue = [0, 1]", fillcolor="#399de5ff"] ;
13 -> 17 ;
18 [label="Total day charge <= 22.18\ngini = 0.5\nsamples = 2\nvalue = [1, 1]", fillcolor="#e5813900"] ;
4 -> 18 ;
19 [label="gini = 0.0\nsamples = 1\nvalue = [1, 0]", fillcolor="#e58139ff"] ;
18 -> 19 ;
20 [label="gini = 0.0\nsamples = 1\nvalue = [0, 1]", fillcolor="#399de5ff"] ;
18 -> 20 ;
21 [label="Total eve charge <= 22.67\ngini = 0.298\nsamples = 258\nvalue = [211, 47]", fillcolor="#e58139c6"] ;
3 -> 21 ;
22 [label="Total eve charge <= 20.505\ngini = 0.188\nsamples = 229\nvalue = [205, 24]", fillcolor="#e58139e1"] ;
21 -> 22 ;
23 [label="Total day calls <= 139.0\ngini = 0.123\nsamples = 197\nvalue = [184, 13]", fillcolor="#e58139ed"] ;
22 -> 23 ;
24 [label="Total day charge <= 38.21\ngini = 0.107\nsamples = 194\nvalue = [183, 11]", fillcolor="#e58139f0"] ;
23 -> 24 ;
25 [label="gini = 0.5\nsamples = 2\nvalue = [1, 1]", fillcolor="#e5813900"] ;
24 -> 25 ;
26 [label="gini = 0.099\nsamples = 192\nvalue = [182, 10]", fillcolor="#e58139f1"] ;
24 -> 26 ;
27 [label="Total intl charge <= 3.32\ngini = 0.444\nsamples = 3\nvalue = [1, 2]", fillcolor="#399de57f"] ;
23 -> 27 ;
28 [label="gini = 0.0\nsamples = 2\nvalue = [0, 2]", fillcolor="#399de5ff"] ;
27 -> 28 ;
29 [label="gini = 0.0\nsamples = 1\nvalue = [1, 0]", fillcolor="#e58139ff"] ;
27 -> 29 ;
30 [label="Total day charge <= 40.34\ngini = 0.451\nsamples = 32\nvalue = [21, 11]", fillcolor="#e5813979"] ;
22 -> 30 ;
31 [label="gini = 0.0\nsamples = 10\nvalue = [10, 0]", fillcolor="#e58139ff"] ;
30 -> 31 ;
32 [label="Total night minutes <= 201.05\ngini = 0.5\nsamples = 22\nvalue = [11, 11]", fillcolor="#e5813900"] ;
30 -> 32 ;
33 [label="gini = 0.298\nsamples = 11\nvalue = [9, 2]", fillcolor="#e58139c6"] ;
32 -> 33 ;
34 [label="gini = 0.298\nsamples = 11\nvalue = [2, 9]", fillcolor="#399de5c6"] ;
32 -> 34 ;
35 [label="Number vmail messages <= 5.5\ngini = 0.328\nsamples = 29\nvalue = [6, 23]", fillcolor="#399de5bc"] ;
21 -> 35 ;
36 [label="Total eve minutes <= 267.0\ngini = 0.08\nsamples = 24\nvalue = [1, 23]", fillcolor="#399de5f4"] ;
35 -> 36 ;
37 [label="Total intl calls <= 6.5\ngini = 0.5\nsamples = 2\nvalue = [1, 1]", fillcolor="#e5813900"] ;
36 -> 37 ;
38 [label="gini = 0.0\nsamples = 1\nvalue = [0, 1]", fillcolor="#399de5ff"] ;
37 -> 38 ;
39 [label="gini = 0.0\nsamples = 1\nvalue = [1, 0]", fillcolor="#e58139ff"] ;
37 -> 39 ;
40 [label="gini = 0.0\nsamples = 22\nvalue = [0, 22]", fillcolor="#399de5ff"] ;
36 -> 40 ;
41 [label="gini = 0.0\nsamples = 5\nvalue = [5, 0]", fillcolor="#e58139ff"] ;
35 -> 41 ;
42 [label="Total intl calls <= 2.5\ngini = 0.479\nsamples = 176\nvalue = [106, 70]", fillcolor="#e5813957"] ;
2 -> 42 ;
43 [label="gini = 0.0\nsamples = 39\nvalue = [0, 39]", fillcolor="#399de5ff"] ;
42 -> 43 ;
44 [label="Total intl minutes <= 13.1\ngini = 0.35\nsamples = 137\nvalue = [106, 31]", fillcolor="#e58139b4"] ;
42 -> 44 ;
45 [label="Total day minutes <= 222.1\ngini = 0.086\nsamples = 111\nvalue = [106, 5]", fillcolor="#e58139f3"] ;
44 -> 45 ;
46 [label="Total night calls <= 84.5\ngini = 0.022\nsamples = 89\nvalue = [88, 1]", fillcolor="#e58139fc"] ;
45 -> 46 ;
47 [label="Total day charge <= 32.265\ngini = 0.124\nsamples = 15\nvalue = [14, 1]", fillcolor="#e58139ed"] ;
46 -> 47 ;
48 [label="gini = 0.0\nsamples = 13\nvalue = [13, 0]", fillcolor="#e58139ff"] ;
47 -> 48 ;
49 [label="gini = 0.5\nsamples = 2\nvalue = [1, 1]", fillcolor="#e5813900"] ;
47 -> 49 ;
50 [label="gini = 0.0\nsamples = 74\nvalue = [74, 0]", fillcolor="#e58139ff"] ;
46 -> 50 ;
51 [label="Total day charge <= 37.895\ngini = 0.298\nsamples = 22\nvalue = [18, 4]", fillcolor="#e58139c6"] ;
45 -> 51 ;
52 [label="gini = 0.0\nsamples = 1\nvalue = [0, 1]", fillcolor="#399de5ff"] ;
51 -> 52 ;
53 [label="Total night calls <= 103.5\ngini = 0.245\nsamples = 21\nvalue = [18, 3]", fillcolor="#e58139d4"] ;
51 -> 53 ;
54 [label="gini = 0.42\nsamples = 10\nvalue = [7, 3]", fillcolor="#e5813992"] ;
53 -> 54 ;
55 [label="gini = 0.0\nsamples = 11\nvalue = [11, 0]", fillcolor="#e58139ff"] ;
53 -> 55 ;
56 [label="gini = 0.0\nsamples = 26\nvalue = [0, 26]", fillcolor="#399de5ff"] ;
44 -> 56 ;
57 [label="Total eve minutes <= 167.3\ngini = 0.468\nsamples = 142\nvalue = [53, 89]", fillcolor="#399de567"] ;
1 -> 57 ;
58 [label="Total day charge <= 54.41\ngini = 0.285\nsamples = 29\nvalue = [24, 5]", fillcolor="#e58139ca"] ;
57 -> 58 ;
59 [label="Total night charge <= 12.775\ngini = 0.198\nsamples = 27\nvalue = [24, 3]", fillcolor="#e58139df"] ;
58 -> 59 ;
60 [label="Total eve charge <= 13.325\ngini = 0.142\nsamples = 26\nvalue = [24, 2]", fillcolor="#e58139ea"] ;
59 -> 60 ;
61 [label="gini = 0.0\nsamples = 17\nvalue = [17, 0]", fillcolor="#e58139ff"] ;
60 -> 61 ;
62 [label="Total eve minutes <= 159.95\ngini = 0.346\nsamples = 9\nvalue = [7, 2]", fillcolor="#e58139b6"] ;
60 -> 62 ;
63 [label="gini = 0.0\nsamples = 2\nvalue = [0, 2]", fillcolor="#399de5ff"] ;
62 -> 63 ;
64 [label="gini = 0.0\nsamples = 7\nvalue = [7, 0]", fillcolor="#e58139ff"] ;
62 -> 64 ;
65 [label="gini = 0.0\nsamples = 1\nvalue = [0, 1]", fillcolor="#399de5ff"] ;
59 -> 65 ;
66 [label="gini = 0.0\nsamples = 2\nvalue = [0, 2]", fillcolor="#399de5ff"] ;
58 -> 66 ;
67 [label="Total day charge <= 49.495\ngini = 0.382\nsamples = 113\nvalue = [29, 84]", fillcolor="#399de5a7"] ;
57 -> 67 ;
68 [label="Number vmail messages <= 6.5\ngini = 0.442\nsamples = 79\nvalue = [26, 53]", fillcolor="#399de582"] ;
67 -> 68 ;
69 [label="Total night minutes <= 150.15\ngini = 0.241\nsamples = 57\nvalue = [8, 49]", fillcolor="#399de5d5"] ;
68 -> 69 ;
70 [label="Total eve calls <= 129.5\ngini = 0.375\nsamples = 4\nvalue = [3, 1]", fillcolor="#e58139aa"] ;
69 -> 70 ;
71 [label="gini = 0.0\nsamples = 3\nvalue = [3, 0]", fillcolor="#e58139ff"] ;
70 -> 71 ;
72 [label="gini = 0.0\nsamples = 1\nvalue = [0, 1]", fillcolor="#399de5ff"] ;
70 -> 72 ;
73 [label="Total day calls <= 82.5\ngini = 0.171\nsamples = 53\nvalue = [5, 48]", fillcolor="#399de5e4"] ;
69 -> 73 ;
74 [label="Total eve minutes <= 190.9\ngini = 0.444\nsamples = 12\nvalue = [4, 8]", fillcolor="#399de57f"] ;
73 -> 74 ;
75 [label="gini = 0.444\nsamples = 6\nvalue = [4, 2]", fillcolor="#e581397f"] ;
74 -> 75 ;
76 [label="gini = 0.0\nsamples = 6\nvalue = [0, 6]", fillcolor="#399de5ff"] ;
74 -> 76 ;
77 [label="Total day minutes <= 265.4\ngini = 0.048\nsamples = 41\nvalue = [1, 40]", fillcolor="#399de5f9"] ;
73 -> 77 ;
78 [label="gini = 0.444\nsamples = 3\nvalue = [1, 2]", fillcolor="#399de57f"] ;
77 -> 78 ;
79 [label="gini = 0.0\nsamples = 38\nvalue = [0, 38]", fillcolor="#399de5ff"] ;
77 -> 79 ;
80 [label="Total night calls <= 131.0\ngini = 0.298\nsamples = 22\nvalue = [18, 4]", fillcolor="#e58139c6"] ;
68 -> 80 ;
81 [label="International plan <= 0.5\ngini = 0.245\nsamples = 21\nvalue = [18, 3]", fillcolor="#e58139d4"] ;
80 -> 81 ;
82 [label="gini = 0.0\nsamples = 16\nvalue = [16, 0]", fillcolor="#e58139ff"] ;
81 -> 82 ;
83 [label="Total eve charge <= 17.815\ngini = 0.48\nsamples = 5\nvalue = [2, 3]", fillcolor="#399de555"] ;
81 -> 83 ;
84 [label="gini = 0.0\nsamples = 2\nvalue = [2, 0]", fillcolor="#e58139ff"] ;
83 -> 84 ;
85 [label="gini = 0.0\nsamples = 3\nvalue = [0, 3]", fillcolor="#399de5ff"] ;
83 -> 85 ;
86 [label="gini = 0.0\nsamples = 1\nvalue = [0, 1]", fillcolor="#399de5ff"] ;
80 -> 86 ;
87 [label="Customer service calls <= 2.5\ngini = 0.161\nsamples = 34\nvalue = [3, 31]", fillcolor="#399de5e6"] ;
67 -> 87 ;
88 [label="Total intl minutes <= 7.6\ngini = 0.062\nsamples = 31\nvalue = [1, 30]", fillcolor="#399de5f6"] ;
87 -> 88 ;
89 [label="Total day calls <= 114.5\ngini = 0.32\nsamples = 5\nvalue = [1, 4]", fillcolor="#399de5bf"] ;
88 -> 89 ;
90 [label="gini = 0.0\nsamples = 4\nvalue = [0, 4]", fillcolor="#399de5ff"] ;
89 -> 90 ;
91 [label="gini = 0.0\nsamples = 1\nvalue = [1, 0]", fillcolor="#e58139ff"] ;
89 -> 91 ;
92 [label="gini = 0.0\nsamples = 26\nvalue = [0, 26]", fillcolor="#399de5ff"] ;
88 -> 92 ;
93 [label="Total intl calls <= 4.0\ngini = 0.444\nsamples = 3\nvalue = [2, 1]", fillcolor="#e581397f"] ;
87 -> 93 ;
94 [label="gini = 0.0\nsamples = 1\nvalue = [1, 0]", fillcolor="#e58139ff"] ;
93 -> 94 ;
95 [label="Voice mail plan <= 0.5\ngini = 0.5\nsamples = 2\nvalue = [1, 1]", fillcolor="#e5813900"] ;
93 -> 95 ;
96 [label="gini = 0.0\nsamples = 1\nvalue = [1, 0]", fillcolor="#e58139ff"] ;
95 -> 96 ;
97 [label="gini = 0.0\nsamples = 1\nvalue = [0, 1]", fillcolor="#399de5ff"] ;
95 -> 97 ;
98 [label="Total day charge <= 27.185\ngini = 0.498\nsamples = 187\nvalue = [88, 99]", fillcolor="#399de51c"] ;
0 -> 98 [labeldistance=2.5, labelangle=-45, headlabel="False"] ;
99 [label="Total eve minutes <= 265.5\ngini = 0.209\nsamples = 76\nvalue = [9, 67]", fillcolor="#399de5dd"] ;
98 -> 99 ;
100 [label="Total day charge <= 23.565\ngini = 0.153\nsamples = 72\nvalue = [6, 66]", fillcolor="#399de5e8"] ;
99 -> 100 ;
101 [label="gini = 0.0\nsamples = 41\nvalue = [0, 41]", fillcolor="#399de5ff"] ;
100 -> 101 ;
102 [label="Area code <= 462.5\ngini = 0.312\nsamples = 31\nvalue = [6, 25]", fillcolor="#399de5c2"] ;
100 -> 102 ;
103 [label="Total eve charge <= 19.385\ngini = 0.095\nsamples = 20\nvalue = [1, 19]", fillcolor="#399de5f2"] ;
102 -> 103 ;
104 [label="gini = 0.0\nsamples = 19\nvalue = [0, 19]", fillcolor="#399de5ff"] ;
103 -> 104 ;
105 [label="gini = 0.0\nsamples = 1\nvalue = [1, 0]", fillcolor="#e58139ff"] ;
103 -> 105 ;
106 [label="Total night minutes <= 244.3\ngini = 0.496\nsamples = 11\nvalue = [5, 6]", fillcolor="#399de52a"] ;
102 -> 106 ;
107 [label="Total eve minutes <= 232.05\ngini = 0.375\nsamples = 8\nvalue = [2, 6]", fillcolor="#399de5aa"] ;
106 -> 107 ;
108 [label="gini = 0.0\nsamples = 6\nvalue = [0, 6]", fillcolor="#399de5ff"] ;
107 -> 108 ;
109 [label="gini = 0.0\nsamples = 2\nvalue = [2, 0]", fillcolor="#e58139ff"] ;
107 -> 109 ;
110 [label="gini = 0.0\nsamples = 3\nvalue = [3, 0]", fillcolor="#e58139ff"] ;
106 -> 110 ;
111 [label="Total intl calls <= 3.5\ngini = 0.375\nsamples = 4\nvalue = [3, 1]", fillcolor="#e58139aa"] ;
99 -> 111 ;
112 [label="gini = 0.0\nsamples = 1\nvalue = [0, 1]", fillcolor="#399de5ff"] ;
111 -> 112 ;
113 [label="gini = 0.0\nsamples = 3\nvalue = [3, 0]", fillcolor="#e58139ff"] ;
111 -> 113 ;
114 [label="Total eve minutes <= 155.5\ngini = 0.41\nsamples = 111\nvalue = [79, 32]", fillcolor="#e5813998"] ;
98 -> 114 ;
115 [label="Total day charge <= 34.36\ngini = 0.453\nsamples = 26\nvalue = [9, 17]", fillcolor="#399de578"] ;
114 -> 115 ;
116 [label="Area code <= 411.5\ngini = 0.231\nsamples = 15\nvalue = [2, 13]", fillcolor="#399de5d8"] ;
115 -> 116 ;
117 [label="gini = 0.0\nsamples = 1\nvalue = [1, 0]", fillcolor="#e58139ff"] ;
116 -> 117 ;
118 [label="Total eve calls <= 125.0\ngini = 0.133\nsamples = 14\nvalue = [1, 13]", fillcolor="#399de5eb"] ;
116 -> 118 ;
119 [label="gini = 0.0\nsamples = 13\nvalue = [0, 13]", fillcolor="#399de5ff"] ;
118 -> 119 ;
120 [label="gini = 0.0\nsamples = 1\nvalue = [1, 0]", fillcolor="#e58139ff"] ;
118 -> 120 ;
121 [label="Area code <= 411.5\ngini = 0.463\nsamples = 11\nvalue = [7, 4]", fillcolor="#e581396d"] ;
115 -> 121 ;
122 [label="gini = 0.0\nsamples = 2\nvalue = [0, 2]", fillcolor="#399de5ff"] ;
121 -> 122 ;
123 [label="Total day calls <= 135.5\ngini = 0.346\nsamples = 9\nvalue = [7, 2]", fillcolor="#e58139b6"] ;
121 -> 123 ;
124 [label="Total night minutes <= 138.9\ngini = 0.219\nsamples = 8\nvalue = [7, 1]", fillcolor="#e58139db"] ;
123 -> 124 ;
125 [label="Total eve calls <= 95.5\ngini = 0.5\nsamples = 2\nvalue = [1, 1]", fillcolor="#e5813900"] ;
124 -> 125 ;
126 [label="gini = 0.0\nsamples = 1\nvalue = [1, 0]", fillcolor="#e58139ff"] ;
125 -> 126 ;
127 [label="gini = 0.0\nsamples = 1\nvalue = [0, 1]", fillcolor="#399de5ff"] ;
125 -> 127 ;
128 [label="gini = 0.0\nsamples = 6\nvalue = [6, 0]", fillcolor="#e58139ff"] ;
124 -> 128 ;
129 [label="gini = 0.0\nsamples = 1\nvalue = [0, 1]", fillcolor="#399de5ff"] ;
123 -> 129 ;
130 [label="Total day minutes <= 286.65\ngini = 0.291\nsamples = 85\nvalue = [70, 15]", fillcolor="#e58139c8"] ;
114 -> 130 ;
131 [label="Total day calls <= 141.5\ngini = 0.25\nsamples = 82\nvalue = [70, 12]", fillcolor="#e58139d3"] ;
130 -> 131 ;
132 [label="Customer service calls <= 8.5\ngini = 0.219\nsamples = 80\nvalue = [70, 10]", fillcolor="#e58139db"] ;
131 -> 132 ;
133 [label="Total day minutes <= 173.65\ngini = 0.202\nsamples = 79\nvalue = [70, 9]", fillcolor="#e58139de"] ;
132 -> 133 ;
134 [label="Total eve minutes <= 208.9\ngini = 0.43\nsamples = 16\nvalue = [11, 5]", fillcolor="#e581398b"] ;
133 -> 134 ;
135 [label="gini = 0.278\nsamples = 6\nvalue = [1, 5]", fillcolor="#399de5cc"] ;
134 -> 135 ;
136 [label="gini = 0.0\nsamples = 10\nvalue = [10, 0]", fillcolor="#e58139ff"] ;
134 -> 136 ;
137 [label="International plan <= 0.5\ngini = 0.119\nsamples = 63\nvalue = [59, 4]", fillcolor="#e58139ee"] ;
133 -> 137 ;
138 [label="gini = 0.069\nsamples = 56\nvalue = [54, 2]", fillcolor="#e58139f6"] ;
137 -> 138 ;
139 [label="gini = 0.408\nsamples = 7\nvalue = [5, 2]", fillcolor="#e5813999"] ;
137 -> 139 ;
140 [label="gini = 0.0\nsamples = 1\nvalue = [0, 1]", fillcolor="#399de5ff"] ;
132 -> 140 ;
141 [label="gini = 0.0\nsamples = 2\nvalue = [0, 2]", fillcolor="#399de5ff"] ;
131 -> 141 ;
142 [label="gini = 0.0\nsamples = 3\nvalue = [0, 3]", fillcolor="#399de5ff"] ;
130 -> 142 ;
}